svm_type c_svc
kernel_type rbf
gamma 0.01562
nr_class 3
total_sv 238
rho 5.45513 -1.08684 -0.15687
label 2 0 1
nr_sv 120 113 5
SV
3789.792995076303 0 0:1.6008785 1:0.74705738 2:-0.84625649 3:-0.9211421 4:-0.67656904 5:3.0267513 6:-2.1933079 7:3.0522728 8:0.38937843 9:1.8073272 10:0.03318882 
12214.70115721346 0 0:-0.73384237 1:-0.6265645 2:0.90636963 3:1.7063087 4:-0.12676601 5:1.4235458 6:0.20227866 7:-0.49448246 8:-0.83338416 9:-0.50533164 10:-0.66267693 
16384 0 0:0.39469919 1:0.033448979 2:-0.12392844 3:-0.55487639 4:-0.61955547 5:-0.92716396 6:0.75535727 7:0.029733436 8:0.57512701 9:-0.15822011 10:0.14466619 
16384 0 0:-0.18923473 1:-0.30505916 2:0.045529738 3:-0.32904008 4:-0.44244018 5:-0.87545294 6:0.75158554 7:-0.34835261 8:-0.096813977 9:-0.39831901 10:-0.24224064 
16384 0 0:-0.15776071 1:-0.27696386 2:0.26050991 3:-0.20344861 4:-0.44482225 5:-0.87455624 6:0.65335673 7:-0.38814467 8:0.051524308 9:-0.41907394 10:-0.14419794 
4637.38601951262 0 0:-0.41222444 1:-0.43314075 2:0.7301349 3:0.17431845 4:-0.33734906 5:-0.83991528 6:0.55490023 7:-0.53521514 8:-0.27155489 9:-0.51999211 10:-0.33779982 
16384 0 0:-0.62765074 1:-0.5587467 2:0.24536811 3:-0.1375363 4:-0.089747593 5:-0.80065566 6:0.47677618 7:-0.64164525 8:-0.56559038 9:-0.58894902 10:-0.50649148 
16384 0 0:2.1422658 1:1.0832632 2:-0.62434876 3:-1.0505465 4:-0.6772747 5:-0.62317598 6:-0.40354431 7:1.465993 8:2.0826952 9:0.79778743 10:1.0360961 
16384 0 0:-0.79533982 1:-0.66979074 2:-0.081667185 3:-0.44168192 4:0.080713995 5:-0.77024484 6:0.27495834 7:-0.76180369 8:-0.73714721 9:-0.67619699 10:-0.62004125 
7285.187406943511 0 0:0.70585448 1:0.2564165 2:0.31810758 3:-0.39612347 4:-0.53599477 5:-0.8004387 6:0.20545499 7:0.29039001 8:0.82464141 9:0.04259894 10:0.3307339 
2308.332927989751 0 0:-0.20007463 1:-0.33628994 2:0.59084946 3:0.013867795 4:-0.49679133 5:-0.59612846 6:-0.21910909 7:-0.18957159 8:-0.28561565 9:-0.32521206 10:-0.36749938 
16384 0 0:-0.80015886 1:-0.6618368 2:1.631519 3:0.80329961 4:0.36301902 5:-0.83112603 6:0.58935422 7:-0.75422353 8:-0.76791435 9:-0.66331589 10:-0.62527674 
3702.250061145329 0 0:-0.73427725 1:-0.624713 2:2.9867084 3:2.1755097 4:0.0984945 5:-0.80352551 6:0.5798263 7:-0.68369204 8:-0.72814721 9:-0.61981434 10:-0.60267603 
16053.34721016694 0 0:-0.67853183 1:-0.59882927 2:-0.56806654 3:-0.79553849 4:0.0099883238 5:-0.74968451 6:1.5314646 7:-0.51450109 8:-0.77816153 9:-0.51844537 10:-0.63584691 
13065.61678902471 0 0:-0.32066602 1:-0.37700635 2:0.41070288 3:0.408297 4:-0.36888242 5:-0.29541382 6:1.0818615 7:-0.27665588 8:-0.38751775 9:-0.35010433 10:-0.40293229 
340.4749191957754 0 0:0.87567925 1:0.33119529 2:-1.0082172 3:-1.0609877 4:-0.62732548 5:0.54267979 6:-0.46034342 7:1.8991529 8:-0.013564008 9:1.0731249 10:-0.18201485 
500.3979075312097 0 0:-1.0019555 1:-0.77668899 2:0.055406701 3:0.15951516 4:4.6633134 5:0.15050864 6:-0.10613396 7:-0.88905197 8:-0.98460639 9:-0.74883258 10:-0.74634832 
5447.925997132532 0 0:-0.61588687 1:-0.37145758 2:0.59275532 3:0.74096817 4:0.38446212 5:0.050464913 6:-0.055658173 7:-0.48684722 8:-0.70652074 9:-0.28307566 10:-0.46095011 
10976.55150060956 0 0:-0.85017347 1:-0.66452181 2:1.4152592 3:2.1132476 4:1.0311887 5:0.17098689 6:-0.2381084 7:-0.75813031 8:-0.85437131 9:-0.63992536 10:-0.652821 
16384 0 0:-0.62832683 1:-0.41317558 2:0.20034404 3:0.30874857 4:0.3944203 5:0.22455139 6:-0.2767877 7:-0.41862494 8:-0.76890177 9:-0.24040864 10:-0.53902662 
5386.753742282063 0 0:0.72570634 1:0.26444545 2:-0.98251325 3:-1.006963 4:-0.63729459 5:2.356616 6:-1.2866435 7:1.57781 8:-0.03976658 9:0.88311213 10:-0.18795262 
4534.457734481 0 0:-0.10842989 1:-0.27093706 2:-0.5339933 3:-0.1395043 4:-0.52463967 5:2.6633544 6:-1.4561912 7:-0.019235291 8:-0.23352854 9:-0.20722321 10:-0.32208246 
2675.773019748754 0 0:1.0440764 1:0.37488475 2:-0.8165462 3:-0.86460721 4:-0.65697509 5:1.7293202 6:-1.7164248 7:1.847216 8:0.21451193 9:0.95511979 10:-0.084000587 
2668.310906947431 0 0:3.0959494 1:2.1871755 2:-1.2639499 3:-1.3078483 4:-0.68744683 5:-0.72828698 6:0.46495146 7:1.7520508 8:3.8348413 9:1.3163716 10:2.7653592 
8451.129427437396 0 0:1.3783813 1:0.80246854 2:-0.88225627 3:-1.2159896 4:-0.61679143 5:-1.0244352 6:1.2629796 7:0.51742029 8:1.9687573 9:0.28222388 10:1.1888962 
6422.747203464003 0 0:3.0099025 1:3.2929068 2:-0.95861715 3:-1.1311737 4:-0.64431137 5:-0.38146669 6:-0.40538755 7:2.7191389 8:2.3014116 9:3.3361216 10:2.5040612 
16384 0 0:0.20597428 1:0.20297168 2:-0.85122889 3:-0.95236498 4:-0.3879838 5:-0.58109874 6:0.25167722 7:0.027033094 8:0.18897265 9:0.083432481 10:0.17743424 
16384 0 0:-0.45881748 1:-0.43544424 2:-0.70384586 3:-0.84116971 4:-0.19596262 5:-0.76045424 6:1.0417931 7:-0.59350455 8:-0.2600489 9:-0.54299432 10:-0.29766646 
16384 0 0:-0.057728209 1:0.15489493 2:-0.38881254 3:-0.36243886 4:-0.23119001 5:-0.44320759 6:0.27646095 7:-0.19750166 8:-0.040300231 9:0.012709226 10:0.16173294 
16384 0 0:-0.86750674 1:-0.6924879 2:0.011852869 3:0.1764822 4:0.89301258 5:-0.35682574 6:0.092224538 7:-0.82128203 8:-0.79189616 9:-0.69879276 10:-0.6293813 
16384 0 0:-0.77903342 1:-0.62883729 2:-0.61114293 3:-0.81924456 4:0.46952724 5:-0.73257691 6:1.0758222 7:-0.72087145 8:-0.76388413 9:-0.62574005 10:-0.60088849 
16384 0 0:-0.45332342 1:-0.42215505 2:-0.44190931 3:-0.51331109 4:-0.14328161 5:-0.48171243 6:0.44810718 7:-0.37748498 8:-0.52298439 9:-0.38329095 10:-0.45006299 
16384 0 0:-0.505 1:-0.28088644 2:-0.1676144 3:-0.039527979 4:0.21525869 5:-0.25365794 6:0.005706883 7:-0.29919034 8:-0.67689705 9:-0.088242419 10:-0.44819456 
16384 0 0:-0.7996543 1:-0.58537722 2:0.23704228 3:0.52712172 4:1.0967652 5:-0.26995066 6:0.021813432 7:-0.60918015 8:-0.88241708 9:-0.45552164 10:-0.64931142 
16384 0 0:-0.30291229 1:0.041769058 2:-0.10529534 3:-0.0092041967 4:0.1733284 5:-0.38304368 6:0.19371501 7:-0.22227514 8:-0.45261788 9:0.11791732 10:-0.13467439 
16384 0 0:-0.65322793 1:-0.36275285 2:0.36304834 3:0.64596379 4:0.70552284 5:-0.35603341 6:0.14970432 7:-0.57085752 8:-0.70119083 9:-0.33111694 10:-0.41656786 
16384 0 0:-0.92043155 1:-0.72357005 2:-0.16908057 3:-0.04984957 4:1.7938757 5:-0.35588416 6:0.049291652 7:-0.85007834 8:-0.8714 9:-0.71941316 10:-0.67545581 
16384 0 0:-0.15061885 1:0.15292336 2:-0.42254415 3:-0.44283742 4:-0.089461066 5:-0.44343191 6:0.27785054 7:-0.29916111 8:-0.099054746 9:-0.02511296 10:0.1952654 
16384 0 0:-0.672086 1:-0.53950524 2:-0.96165526 3:-1.098804 4:0.13089654 5:-0.58744389 6:0.29633978 7:-0.71718007 8:-0.53655064 9:-0.60907274 10:-0.43275455 
375.1366636104983 0 0:-0.60530359 1:-0.54381293 2:-0.9248836 3:-0.79454583 4:-0.20578869 5:3.7385757 6:-1.8635422 7:-0.29981142 8:-0.78428459 9:-0.35908994 10:-0.63294983 
4785.010462237895 0 0:-0.62914348 1:-0.58359981 2:0.14218237 3:0.39525208 4:-0.39107558 5:1.8331833 6:-0.14767723 7:-0.31861269 8:-0.7423892 9:-0.41903579 10:-0.62258983 
16384 0 0:-0.82618314 1:-0.6858778 2:1.2663872 3:1.366708 4:0.14406066 5:1.0195661 6:0.88492137 7:-0.59548932 8:-0.89030528 9:-0.57482147 10:-0.69942385 
16384 0 0:-0.52547598 1:-0.51454341 2:-0.054106381 3:-0.076244287 4:-0.30945143 5:-0.043958757 6:-0.69162452 7:-0.44590077 8:-0.60112095 9:-0.47545928 10:-0.54067105 
375.3230982877694 0 0:-1.021047 1:-0.78783804 2:0.8036558 3:1.0727558 4:7.9842253 5:-0.19554192 6:-0.027726347 7:-0.90546584 8:-1.0010816 9:-0.7587294 10:-0.75618583 
16384 0 0:-0.74043524 1:-0.51120567 2:-1.0259161 3:-1.0314626 4:0.50135618 5:-0.018697346 6:-0.41797769 7:-0.67932415 8:-0.73366433 9:-0.51611024 10:-0.49595279 
16384 0 0:-0.69663405 1:-0.53442538 2:0.41915882 3:0.51234442 4:0.29575226 5:-0.60876667 6:0.65647602 7:-0.69489175 8:-0.62188041 9:-0.57601094 10:-0.46654299 
16384 0 0:-0.74284542 1:-0.53974837 2:0.43219298 3:0.50913954 4:0.63378745 5:-0.56675655 6:0.52719551 7:-0.67758697 8:-0.73886758 9:-0.53621429 10:-0.52564526 
16384 0 0:-0.68614268 1:-0.38621211 2:1.4305068 3:1.8575466 4:0.89832312 5:-0.35547304 6:0.73298335 7:-0.57780427 8:-0.74913472 9:-0.32342023 10:-0.45848256 
16384 0 0:0.070807278 1:0.14330091 2:-0.50708169 3:-0.55937368 4:-0.38502413 5:-0.3193 6:0.046200607 7:0.11386308 8:-0.11077271 9:0.21700434 10:-0.015124085 
4931.180828358948 0 0:-0.68873209 1:-0.58211702 2:-0.8132627 3:-0.82820272 4:-0.010870453 5:-0.26343364 6:0.099370331 7:-0.72912216 8:-0.54833138 9:-0.63790584 10:-0.48027813 
16384 0 0:0.31272474 1:0.21842694 2:-0.81396091 3:-0.82621568 4:-0.50920987 5:-0.23385969 6:-0.13718508 7:0.31553701 8:0.11310426 9:0.27349722 10:0.060278624 
784.0652635882153 0 0:1.7895149 1:1.5405164 2:-1.0061376 3:-1.0439738 4:-0.64813322 5:-0.0095195584 6:-0.91748947 7:1.4801023 8:1.5508748 9:1.4188863 10:1.3274739 
16384 0 0:-0.84043127 1:-0.65890718 2:0.73928726 3:0.9044193 4:1.130721 5:-0.53838605 6:0.67609894 7:-0.77269804 8:-0.80404693 9:-0.65012825 10:-0.61921436 
16384 0 0:-0.86165851 1:-0.67883712 2:0.57454497 3:0.70865905 4:1.4387808 5:-0.55148017 6:0.782013 7:-0.81649202 8:-0.79651582 9:-0.69115537 10:-0.61833704 
16384 0 0:-0.22423099 1:-0.30186698 2:-0.75608784 3:-0.96153104 4:-0.33665502 5:-0.94191718 6:1.5277505 7:-0.37803853 8:-0.10894009 9:-0.40241244 10:-0.21985488 
16384 0 0:-0.76301146 1:-0.607153 2:-0.19882673 3:-0.18334247 4:0.68739313 5:-0.5068841 6:0.49702334 7:-0.7488485 8:-0.6796574 9:-0.63667005 10:-0.53528792 
14579.43614858532 0 0:-0.91611046 1:-0.71208382 2:-0.068536848 3:-0.37163612 4:1.5316907 5:-0.62475294 6:1.0435798 7:-0.82461399 8:-0.90143847 9:-0.69505239 10:-0.68433422 
16384 0 0:1.1298577 1:1.0363406 2:-0.91181177 3:-0.94402701 4:-0.55684024 5:0.1415326 6:-1.237075 7:1.4114456 8:0.51853085 9:1.4764208 10:0.47003704 
16384 0 0:-0.75495231 1:-0.62554246 2:-0.915501 3:-0.85450566 4:0.26951137 5:0.17928265 6:-0.55451751 7:-0.74112058 8:-0.68306375 9:-0.64885551 10:-0.56277418 
2053.297240697127 0 0:0.91785061 1:0.78809094 2:-1.2503079 3:-1.2699413 4:-0.65120816 5:0.50040811 6:-1.3434432 7:0.52222234 8:1.0706788 9:0.43268618 10:1.0543005 
16384 0 0:-0.079439022 1:0.11631288 2:-0.65606868 3:-0.52494067 4:-0.23106237 5:0.21103118 6:-0.51070565 7:-0.15643819 8:-0.13133603 9:0.036333367 10:0.064118631 
15401.02900200212 0 0:0.44892088 1:0.19560163 2:-0.59748232 3:-0.58709538 4:-0.51010543 5:-0.053315997 6:-0.69964981 7:0.15024596 8:0.55520731 9:0.014003936 10:0.28779519 
16384 0 0:-0.58799696 1:-0.47075227 2:-0.51084256 3:-0.34026596 4:-0.023405498 5:0.030442629 6:-0.239611 7:-0.60042202 8:-0.52711272 9:-0.51867771 10:-0.40127543 
16313.29950396152 0 0:-0.72240263 1:-0.57178205 2:-0.44213775 3:-0.22597663 4:0.16085826 5:0.17991045 6:-0.47789663 7:-0.65421993 8:-0.7147885 9:-0.55976212 10:-0.54965776 
16384 0 0:-0.80955476 1:-0.62405413 2:-0.3019124 3:-0.051971748 4:0.84068763 5:0.21930465 6:-0.34237754 7:-0.74890614 8:-0.79229486 9:-0.62422335 10:-0.5971086 
16384 0 0:0.28906637 1:0.37438929 2:-0.99269593 3:-0.97211945 4:-0.44126034 5:0.22138247 6:-0.73362195 7:0.28763115 8:0.092399687 9:0.44352946 10:0.16460577 
7640.067335389978 0 0:1.0977228 1:1.3636949 2:-1.1462083 3:-1.1583221 4:-0.57844681 5:1.0420471 6:-2.0347061 7:2.4954367 8:0.0030003453 9:3.1169775 10:0.23037653 
16384 0 0:-0.84456646 1:-0.66736823 2:-0.24902691 3:-0.012144065 4:0.59146976 5:0.061563361 6:-0.01499386 7:-0.74023008 8:-0.84045774 9:-0.63639951 10:-0.64563042 
16384 0 0:1.6435034 1:1.8917789 2:-0.83588123 3:-0.94066095 4:-0.60079306 5:-0.63624752 6:0.2669048 7:1.0503067 8:1.6946572 9:1.3964249 10:1.94239 
16384 0 0:0.24026681 1:0.5153203 2:-0.45183733 3:-0.47997817 4:-0.32534909 5:-0.56708527 6:0.39394498 7:-0.065661199 8:0.38576022 9:0.2091331 10:0.64695096 
7370.715403894299 0 0:-0.24286117 1:-0.043132715 2:-0.3948946 3:-0.3220776 4:-0.20796923 5:-0.56027681 6:0.53635454 7:-0.18937582 8:-0.36407799 9:0.0059466115 10:-0.16259795 
4733.932395573005 0 0:-0.94431055 1:-0.71859431 2:-0.33862555 3:-0.22287391 4:2.6036692 5:-0.48086792 6:0.47805226 7:-0.8168003 8:-0.94582301 9:-0.67402583 10:-0.70458579 
101.9916332694087 0 0:-0.99317157 1:-0.75270116 2:0.42106673 3:0.60123342 4:5.6690226 5:-0.63942379 6:0.83095741 7:-0.87418085 8:-0.97080266 9:-0.72049868 10:-0.71965832 
16384 0 0:-0.66062093 1:-0.3622314 2:1.7591798 3:2.167177 4:1.0392013 5:-0.65443861 6:0.78998131 7:-0.56689703 8:-0.72129303 9:-0.31681368 10:-0.42914209 
16384 0 0:-0.2655524 1:-0.066897914 2:-0.23349431 3:-0.18751407 4:-0.035772555 5:-0.61417001 6:0.60444057 7:-0.42432493 8:-0.14312848 9:-0.24670772 10:0.046406601 
16384 0 0:1.4348049 1:1.6299534 2:-0.95677531 3:-1.0476136 4:-0.59572196 5:-0.6194616 6:0.14828646 7:1.0309832 8:1.3060894 9:1.3564041 10:1.4682385 
16384 0 0:0.37662897 1:0.01413241 2:-0.84659237 3:-0.9868136 4:-0.51276058 5:-0.53466409 6:-0.38417614 7:0.11355481 8:0.47683921 9:-0.10853262 10:0.075386159 
16384 0 0:-0.15859392 1:-0.3040494 2:-0.3499839 3:-0.6349839 4:-0.48518768 5:-0.39249063 6:-0.65410829 7:-0.28784207 8:-0.096398048 9:-0.37296668 10:-0.2585749 
16384 0 0:-0.62736195 1:-0.55732989 2:-0.57793409 3:-0.76880598 4:-0.17119707 5:-0.4198671 6:-0.57646608 7:-0.65599763 8:-0.5420211 9:-0.59706879 10:-0.4908132 
1868.092969865946 0 0:-0.79499459 1:-0.65763235 2:2.3321738 3:2.4632599 4:0.33478338 5:-0.51932055 6:0.27351224 7:-0.6806789 8:-0.83153701 9:-0.61645961 10:-0.65924692 
16384 0 0:-0.60140854 1:-0.54688561 2:0.93303406 3:0.49916095 4:-0.055529889 5:-0.51474649 6:-0.20473166 7:-0.5974111 8:-0.58669525 9:-0.56281406 10:-0.52210218 
316.3793382938234 0 0:3.6245224 1:3.6401036 2:-1.1308342 3:-1.1609917 4:-0.68648642 5:-0.17547478 6:-0.44395331 7:2.9205854 8:4.1666007 9:3.0968399 10:4.3381777 
16384 0 0:-0.73382246 1:-0.54404223 2:0.74559021 3:1.0516206 4:0.43328571 5:-0.41468778 6:0.4095979 7:-0.64844787 8:-0.75990731 9:-0.51490569 10:-0.55673683 
16384 0 0:-0.79859525 1:-0.60485917 2:0.60868239 3:0.86509401 4:0.54076111 5:-0.39077905 6:0.38311276 7:-0.72021306 8:-0.79396266 9:-0.58681852 10:-0.5904026 
16384 0 0:-0.71883512 1:-0.56874412 2:0.47445607 3:0.71945184 4:0.3416878 5:-0.21355355 6:0.21889585 7:-0.68442333 8:-0.69703346 9:-0.58251005 10:-0.53699809 
16384 0 0:-0.89569652 1:-0.70639002 2:0.1270951 3:0.30204248 4:1.2139459 5:-0.27076524 6:0.20658928 7:-0.83470839 8:-0.84457195 9:-0.70708513 10:-0.65750718 
16384 0 0:-0.7776646 1:-0.61733985 2:-0.50539464 3:-0.47863901 4:0.35035861 5:-0.57246631 6:0.5224883 7:-0.76786166 8:-0.68960911 9:-0.64981735 10:-0.54443461 
16384 0 0:-0.1445217 1:-0.23225293 2:-0.97742569 3:-1.0280359 4:-0.49107793 5:-0.35022631 6:-0.24066055 7:-0.32585415 8:-0.0084388824 9:-0.34804899 10:-0.14346373 
16384 0 0:0.019297631 1:0.098171122 2:-1.0997369 3:-1.1694632 4:-0.45429456 5:0.00059979851 6:-1.0575174 7:0.055292316 8:-0.14739811 9:0.15741107 10:-0.054756105 
15310.90908238088 0 0:1.8942624 1:1.8520938 2:-0.92972398 3:-1.0561664 4:-0.54849625 5:0.41771832 6:-1.7733946 7:1.7626048 8:1.3393909 9:1.8982356 10:1.3376606 
1541.166568829379 0 0:-0.93661839 1:-0.70638895 2:0.53787529 3:0.93648589 4:3.3158062 5:0.20811649 6:-0.7989282 7:-0.83203208 8:-0.93138945 9:-0.67981762 10:-0.69007081 
16384 0 0:-0.44905207 1:-0.20161816 2:-0.062809534 3:0.068453722 4:0.30640885 5:0.376351 6:-1.2600442 7:-0.44522795 8:-0.48744598 9:-0.23168543 10:-0.24144067 
9905.072684298146 0 0:-0.17838489 1:0.088053197 2:-0.47742802 3:-0.40953392 4:-0.11538848 5:0.41374975 6:-1.3815265 7:-0.22570691 8:-0.23789625 9:0.029272487 10:0.018879458 
16384 0 0:-0.39146411 1:-0.21435115 2:-0.84226525 3:-0.81563771 4:0.069634214 5:0.38984129 6:-1.385213 7:-0.37411627 8:-0.44629192 9:-0.21285178 10:-0.26977488 
11582.38978053006 0 0:-0.19319181 1:-0.19028465 2:-0.99847984 3:-1.0424286 4:-0.35972577 5:0.010270801 6:-0.89298928 7:-0.34166023 8:-0.079990581 9:-0.28791931 10:-0.12758638 
782.1514974160372 0.07121939991275253 0:4.3289294 1:4.8910608 2:-1.164475 3:-1.2865852 4:-0.67492819 5:-0.22849359 6:-1.3108889 7:4.0423589 8:3.191453 9:5.0570097 10:3.6334662 
13976.86997711889 0 0:-0.53517723 1:-0.20979017 2:-0.33163956 3:-0.24455826 4:0.55838495 5:0.4671348 6:-1.4327683 7:-0.51176476 8:-0.56740743 9:-0.23252584 10:-0.25450736 
16384 0 0:-0.41368729 1:-0.44513261 2:-0.57105941 3:-0.78513199 4:-0.45280355 5:-0.67668062 6:1.7198981 7:-0.49083924 8:-0.32071453 9:-0.50312483 10:-0.37584251 
730.3546269213476 0 0:-0.58324313 1:-0.56047612 2:0.11120583 3:-0.084126674 4:-0.4614408 5:-0.5760836 6:1.7814331 7:-0.61723852 8:-0.48480886 9:-0.59366781 10:-0.49231899 
5360.899604523947 0 0:-0.45862055 1:-0.48070478 2:-0.10942048 3:-0.0039567826 4:-0.43046933 5:-0.12168595 6:0.95924544 7:-0.37802956 8:-0.51866764 9:-0.43981498 10:-0.49780342 
16384 0 0:-0.69895792 1:-0.61049837 2:1.3899534 3:1.1471274 4:-0.13890475 5:-0.79487085 6:2.1326656 7:-0.68249261 8:-0.65388352 9:-0.6238234 10:-0.56741595 
0 32.78686454101916 0:-0.3125239 1:-0.37940633 2:3.2441442 3:3.9486473 4:-0.52649111 5:-0.059377331 6:0.49872476 7:-0.32241568 8:-0.20233822 9:-0.3971734 10:-0.29614648 
9492.428458065864 0 0:-0.38995257 1:-0.41624054 2:0.40922141 3:0.65091842 4:-0.33528486 5:0.024485972 6:0.53947383 7:-0.50199395 8:-0.27337974 9:-0.49564892 10:-0.33445582 
426.1593143300867 0 0:1.2028245 1:2.9648676 2:-0.11127365 3:0.067632571 4:-0.70033938 5:0.1048065 6:0.46866614 7:0.79893482 8:1.7319577 9:2.4324837 10:3.0551727 
14677.25205419335 0 0:-0.69684541 1:-0.60952997 2:0.085526489 3:-0.14225361 4:-0.22348857 5:-1.0744572 6:2.1408041 7:-0.66442502 8:-0.64730084 9:-0.61283672 10:-0.56476349 
9350.951218800754 0 0:-0.62884247 1:-0.56494516 2:1.3564011 3:1.4152323 4:-0.16155685 5:-0.89647686 6:1.9267073 7:-0.61053705 8:-0.59913921 9:-0.57537979 10:-0.52991009 
0 16.77047261396018 0:1.0749719 1:0.48363853 2:0.94220543 3:0.60615343 4:-0.66423237 5:-1.045982 6:2.8433254 7:0.12868583 8:2.5355821 9:-0.08404386 10:1.3820696 
2986.739660411664 0 0:-0.21849123 1:-0.31027853 2:-0.20446338 3:-0.2259593 4:-0.46045798 5:-0.51745945 6:0.53870839 7:-0.41411981 8:-0.030795604 9:-0.43599787 10:-0.18521841 
16384 0 0:-0.18711567 1:-0.27289322 2:-0.31796956 3:-0.31154466 4:-0.34293258 5:-0.26406875 6:-0.14923687 7:-0.16380344 8:-0.3146005 9:-0.25185773 10:-0.33902293 
16384 0 0:-0.14283867 1:-0.25494549 2:-0.18111266 3:-0.2463409 4:-0.43944019 5:-0.46836433 6:0.40069419 7:-0.31388032 8:-0.052434184 9:-0.36063784 10:-0.19047531 
5630.024809293843 0 0:1.7582322 1:2.1790495 2:-0.81391752 3:-0.93364996 4:-0.59092379 5:0.52167106 6:-1.2922297 7:1.5431107 8:1.3435506 9:2.1088252 10:1.7062298 
6132.35209933093 0 0:-0.84505224 1:-0.64496624 2:-0.80606347 3:-0.81031579 4:0.8786307 5:0.39366031 6:-1.1082768 7:-0.75380385 8:-0.84858727 9:-0.62152636 10:-0.63507974 
16384 0 0:0.15416484 1:0.51954931 2:-0.58428222 3:-0.61050695 4:-0.28402326 5:0.050360236 6:-0.27494448 7:0.20914976 8:-0.087784201 9:0.60608703 10:0.24890096 
0 15.93009690421351 0:0.39118031 1:0.3856667 2:1.3189048 3:1.586947 4:-0.58642268 5:-0.59422249 6:0.86319989 7:0.00035579456 8:0.81777787 9:0.051186882 10:0.74919981 
16384 0 0:-0.75172007 1:-0.59531331 2:-0.013651034 3:0.16227312 4:0.50159347 5:-0.29077259 6:0.41217887 7:-0.71340179 8:-0.72278816 9:-0.60575038 10:-0.56087375 
12373.11480816878 0 0:-0.91107005 1:-0.70186019 2:0.25821519 3:0.46938112 4:1.7929354 5:-0.41175786 6:0.66654277 7:-0.82812721 8:-0.88420498 9:-0.69369107 10:-0.66209477 
16384 0 0:-0.91333073 1:-0.69430006 2:0.8095811 3:1.1401805 4:2.1766868 5:-0.49867046 6:0.73689687 7:-0.79741174 8:-0.91999292 9:-0.65256631 10:-0.68686348 
16384 0 0:-0.87099129 1:-0.66330677 2:0.95064056 3:1.2898245 4:1.5099968 5:-0.50231004 6:0.6882925 7:-0.80985659 8:-0.82040453 9:-0.6733765 10:-0.60515058 
16384 0 0:-0.96399951 1:-0.74116534 2:-0.35293338 3:-0.25003263 4:2.3571558 5:0.029964367 6:-0.56305349 7:-0.85740423 8:-0.94591051 9:-0.71618283 10:-0.71129209 
16384 0 0:0.74106556 1:0.34860671 2:-0.78907031 3:-0.86084622 4:-0.63064289 5:0.55456322 6:-0.89778125 7:0.42987925 8:0.78059119 9:0.19648178 10:0.37604058 
-2305.044588462592 0 0:-0.72852755 1:-0.60606915 2:-0.22727449 3:0.31084996 4:0.30801854 5:2.6448269 6:-1.223634 7:-0.44489717 8:-0.87208277 9:-0.44009823 10:-0.67727518 
-9463.361775969222 0 0:1.1937064 1:0.47484344 2:-1.1068059 3:-1.1144336 4:-0.66772735 5:2.4051731 6:-2.0280137 7:2.5940897 8:0.19949763 9:1.4900154 10:-0.091157928 
-16384 0 0:-0.44297481 1:-0.4541887 2:-0.79221231 3:-0.97973329 4:-0.30207238 5:-0.81973612 6:0.8160699 7:-0.528804 8:-0.33946481 9:-0.51729286 10:-0.38283095 
-16384 0 0:-0.033705723 1:-0.17567724 2:-0.014870082 3:-0.42414492 4:-0.45529753 5:-0.861036 6:0.75042301 7:-0.26140559 8:0.10307772 9:-0.31576866 10:-0.083469011 
-16384 0 0:-0.62458885 1:-0.53986794 2:1.451661 3:0.65533602 4:0.072887219 5:-0.8809762 6:0.66030419 7:-0.6499263 8:-0.56015527 9:-0.58094364 10:-0.48575547 
-10530.16412694832 5.194170780338824 0:-0.71756703 1:-0.5980565 2:2.3992784 3:1.5200593 4:0.24824062 5:-0.80004281 6:0.4224157 7:-0.68330723 8:-0.69978786 9:-0.60470539 10:-0.57097501 
-13937.56825132953 0 0:0.2272978 1:-0.045313623 2:-0.1886421 3:-0.63365865 4:-0.52321577 5:-0.81191099 6:0.28715193 7:-0.073800541 8:0.36843443 9:-0.2083884 10:0.042390592 
-16384 0 0:-0.5095768 1:-0.47402623 2:0.069265425 3:-0.32753289 4:-0.15827028 5:-0.79954934 6:0.45315498 7:-0.60019922 8:-0.38416252 9:-0.55030948 10:-0.38522384 
-16384 0 0:-0.2551119 1:-0.31139758 2:-0.051753148 3:-0.48184568 4:-0.34504601 5:-0.80677658 6:0.32194597 7:-0.44880593 8:-0.071843736 9:-0.44235936 10:-0.1897393 
-16384 1.42407744736727 0:2.2378623 1:1.2316765 2:-0.56786084 3:-0.99324077 4:-0.67703044 5:-0.68382549 6:-0.21474198 7:1.4189391 8:2.3306634 9:0.84296411 10:1.2698385 
-16384 0 0:-0.30590108 1:-0.33307987 2:-0.010797835 3:-0.44652915 4:-0.32740211 5:-0.77798027 6:0.2551648 7:-0.47325093 8:-0.13837618 9:-0.45140743 10:-0.21991174 
-7661.88797509975 0 0:-0.76981574 1:-0.63228953 2:1.0634693 3:0.39746955 4:0.41336271 5:-0.84132779 6:0.61433679 7:-0.74980468 8:-0.71122998 9:-0.6515941 10:-0.58010572 
-5486.509466088999 0 0:-0.85717803 1:-0.69114411 2:1.2235504 3:0.58191729 4:0.83693999 5:-0.82018447 6:0.56822813 7:-0.80320531 8:-0.80890757 9:-0.69232386 10:-0.64445275 
-16384 0 0:0.46519852 1:0.14621724 2:-0.47592971 3:-0.79425305 4:-0.57291251 5:-0.83638775 6:0.30467632 7:0.012140634 8:0.7443856 9:-0.11768129 10:0.32045829 
-0 1.483067674438358 0:2.8271866 1:6.2734032 2:-0.84021026 3:-1.1651304 4:-0.69390017 5:-0.68861628 6:-0.36180222 7:1.8961375 8:2.8374624 9:4.4719439 10:6.7977695 
-16384 0 0:-0.55677849 1:-0.52037561 2:-0.30904368 3:-0.52994901 4:-0.21484905 5:-0.55924523 6:1.3686666 7:-0.37571624 8:-0.68949139 9:-0.42205065 10:-0.58029592 
-16384 0 0:-0.77592617 1:-0.6424396 2:0.99291116 3:1.6574033 4:0.23758845 5:0.81521833 6:0.54375619 7:-0.63132304 8:-0.83155698 9:-0.57956451 10:-0.65689707 
-16384 0 0:0.34223688 1:0.57224846 2:-0.70698786 3:-0.65608615 4:-0.36355186 5:0.63919598 6:-1.5113742 7:0.50403327 8:-0.0285431 9:0.79301316 10:0.19865733 
-16384 0 0:-0.38427147 1:-0.16028325 2:-0.53821659 3:-0.35472798 4:0.098588526 5:0.53146172 6:-1.0610621 7:-0.42874676 8:-0.37214237 9:-0.2409959 10:-0.14058726 
-4831.823411610456 0 0:1.3637635 1:1.9765735 2:-0.56141263 3:-0.62890494 4:-0.40894783 5:0.77048767 6:-1.7590742 7:2.1959445 8:0.33321401 9:3.2351103 10:0.76209587 
-5349.957743876656 0 0:0.16880471 1:0.66912729 2:-0.51625097 3:-0.44167325 4:-0.15652183 5:0.88850605 6:-1.7009702 7:0.61240768 8:-0.30063787 9:1.2685245 10:0.10705908 
-12963.38682961958 0 0:-0.68183374 1:-0.43398091 2:0.24244866 3:0.32224908 4:0.79248643 5:0.20100155 6:-0.19024125 7:-0.57307863 8:-0.74463785 9:-0.37782302 10:-0.49013415 
-0 0.3665191834508112 0:5.7132549 1:5.4226995 2:-1.1481764 3:-1.2261583 4:-0.70051473 5:0.97808671 6:-2.5343595 7:7.6805286 8:3.0714877 9:7.8647976 10:3.0144792 
-3518.602144449494 0 0:-0.83486742 1:-0.6794408 2:0.37103638 3:1.294883 4:0.5791049 5:1.8238856 6:-0.65739763 7:-0.68214834 8:-0.88681692 9:-0.61434644 10:-0.69077033 
-10620.33403592247 0 0:1.0226977 1:1.4449296 2:-0.93965954 3:-1.0432861 4:-0.48631155 5:-0.51744449 6:0.036247347 7:0.65494043 8:1.0178028 9:1.089228 10:1.4867097 
-1609.186937363709 0 0:-0.95744908 1:-0.72557062 2:0.42766967 3:0.75953937 4:4.6019254 5:-0.35861942 6:0.17015029 7:-0.80908805 8:-0.97586697 9:-0.66037512 10:-0.72731167 
-2423.010707604773 0.8274751645649333 0:3.3695476 1:3.7631738 2:-0.93850279 3:-1.2161245 4:-0.6385501 5:-0.86132753 6:0.64309108 7:2.3967164 8:3.2332861 9:3.0516982 10:3.5475106 
-16384 0 0:-0.80965102 1:-0.53543407 2:0.5220955 3:0.85333109 4:1.9647851 5:-0.37639967 6:0.17088747 7:-0.72974259 8:-0.8112343 9:-0.53387344 10:-0.52270484 
-738.6265974204508 0 0:0.97768259 1:0.38969651 2:-0.98137158 3:-0.91443598 4:-0.63263226 5:3.9518249 6:-2.4176698 7:1.8243302 8:0.25554827 9:1.0156482 10:-0.030411202 
-0 0.244025368638097 0:0.5063296 1:0.13529238 2:-0.98526466 3:-0.87196296 4:-0.61906296 5:5.0251479 6:-2.5552304 7:1.0206296 8:-0.022307321 9:0.52985996 10:-0.17816064 
-1269.722162333061 0 0:0.10736819 1:-0.1261601 2:-1.0318925 3:-0.91643345 4:-0.55941927 5:4.1655145 6:-2.3408501 7:0.4690389 8:-0.23390526 9:0.12949125 10:-0.31496605 
-11775.1722306938 0 0:-0.7355985 1:-0.62488616 2:1.2631414 3:1.2697114 4:0.053582098 5:0.97615844 6:0.8545509 7:-0.49988094 8:-0.84640026 9:-0.50392479 10:-0.66962081 
-16384 0 0:-0.47178316 1:-0.46794623 2:0.57803607 3:0.73606551 4:-0.3049067 5:1.3248848 6:0.23148656 7:-0.2591688 8:-0.61526799 9:-0.33653399 10:-0.53741592 
-955.5842610520665 0 0:0.71861315 1:0.2642003 2:-1.093504 3:-1.1213251 4:-0.58608729 5:0.82579368 6:-2.084671 7:1.9601585 8:-0.03172566 9:1.1907946 10:-0.18147086 
-16384 0 0:-0.82927042 1:-0.6782952 2:-0.88128066 3:-0.87689853 4:0.64221418 5:-0.049691103 6:-0.62759429 7:-0.76736641 8:-0.79564422 9:-0.67086917 10:-0.64113176 
-16384 0 0:-0.71391422 1:-0.601192 2:-0.60783869 3:-0.58062321 4:0.13315998 5:0.03150383 6:-0.6797998 7:-0.64618182 8:-0.7250219 9:-0.58638841 10:-0.58962214 
-16384 0 0:-0.62210464 1:-0.56428277 2:-0.5337348 3:-0.52256554 4:-0.018511472 5:-0.036126304 6:-0.68663377 7:-0.58271217 8:-0.63132232 9:-0.55700856 10:-0.5532915 
-16384 0 0:-0.6359843 1:-0.5476073 2:-0.22277941 3:-0.1691923 4:0.021495713 5:-0.16004886 6:-0.40757081 7:-0.63054448 8:-0.60987604 9:-0.56796861 10:-0.51692706 
-16384 0 0:-0.93775707 1:-0.73701859 2:-0.1273157 3:-0.041825131 4:1.9195392 5:-0.011926365 6:-0.61290509 7:-0.83593327 8:-0.92846233 9:-0.71230638 10:-0.71233904 
-16384 0 0:-0.75616074 1:-0.63549542 2:1.6324059 3:1.9581292 4:0.40081647 5:-0.23246215 6:-0.044315297 7:-0.65047765 8:-0.79788113 9:-0.59645724 10:-0.64110059 
-16384 0 0:-0.94021034 1:-0.7381075 2:0.53336328 3:0.77629161 4:2.1545675 5:-0.18661809 6:-0.032688852 7:-0.83573765 8:-0.93532711 9:-0.71148282 10:-0.71610814 
-16384 0 0:-0.79379058 1:-0.65127248 2:0.67944795 3:0.88123989 4:0.54175746 5:-0.19392742 6:-0.090225689 7:-0.72607952 8:-0.7911945 9:-0.63967454 10:-0.63158649 
-9815.453061007072 0 0:-0.78475326 1:-0.6495344 2:0.19859102 3:0.2861599 4:0.50271517 5:-0.22500329 6:-0.1096786 7:-0.70462883 8:-0.79963839 9:-0.62861389 10:-0.64006078 
-16384 0 0:-0.38849077 1:-0.4119263 2:-0.23980655 3:-0.29018945 4:-0.31366485 5:-0.25053388 6:-0.37357044 7:-0.44381702 8:-0.3654829 9:-0.4540408 10:-0.38509408 
-1175.48770688212 0 0:-0.20382811 1:-0.30555055 2:-0.34898561 3:-0.43504339 4:-0.41693813 5:-0.20556422 6:-0.52099955 7:-0.27714419 8:-0.21984059 9:-0.34744784 10:-0.30332157 
-16384 0 0:-0.85877365 1:-0.69376832 2:-0.76184154 3:-0.75455528 4:0.71941227 5:0.075217888 6:-0.82107502 7:-0.78514111 8:-0.83667856 9:-0.68213671 10:-0.66222543 
-16384 0 0:0.24650784 1:-0.023341184 2:-1.1574458 3:-1.1928406 4:-0.563326 5:0.0083425287 6:-1.0681796 7:0.053516861 8:0.26043794 9:-0.10958118 10:-0.019052962 
-16384 0 0:0.78053659 1:0.30001917 2:-0.76198876 3:-0.92742896 4:-0.62713492 5:0.063102826 6:-1.2544863 7:0.58564025 8:0.59870809 9:0.24241911 10:0.19115332 
-13537.52532274788 0 0:2.0710695 1:2.0423224 2:-1.0787884 3:-1.133989 4:-0.62420636 5:0.24511911 6:-1.379485 7:1.7527034 8:1.6378491 9:1.9368347 10:1.6162742 
-16384 0 0:0.65334797 1:0.53117913 2:-0.96409529 3:-0.99288565 4:-0.5566141 5:-0.20829947 6:-0.36012903 7:0.40450251 8:0.59640449 9:0.39016819 10:0.47906286 
-16384 0 0:0.49694586 1:0.76004571 2:-0.6676082 3:-0.72901464 4:-0.40740982 5:-0.33685592 6:0.15758784 7:0.15916161 8:0.58153141 9:0.45051166 10:0.82465953 
-16384 0 0:-0.96183658 1:-0.74307197 2:-0.24214661 3:-0.21124437 4:2.6916983 5:-0.47873789 6:0.40409705 7:-0.86035705 8:-0.94270909 9:-0.72077608 10:-0.71329445 
-10291.70302815785 0 0:-0.75468123 1:-0.50033492 2:1.1119673 3:1.4701837 4:1.3893663 5:-0.30350783 6:0.67794216 7:-0.55515277 8:-0.85396397 9:-0.34823507 10:-0.59363818 
-16384 0 0:-0.89731431 1:-0.70020533 2:-0.63520324 3:-0.65383059 4:1.3213317 5:-0.31799218 6:0.15370314 7:-0.81242257 8:-0.88002402 9:-0.68465263 10:-0.67257851 
-3704.80606058523 0 0:2.056994 1:2.0682888 2:-1.0319039 3:-1.1142397 4:-0.62478799 5:-0.66984957 6:0.21050224 7:1.5106614 8:1.8804134 9:1.7488217 10:1.8457853 
-16384 0 0:-0.71460915 1:-0.5457691 2:-0.76847279 3:-0.81767499 4:0.44778863 5:-0.57235432 6:0.31071663 7:-0.62837744 8:-0.74314779 9:-0.50962734 10:-0.55899459 
-16384 0 0:-0.24720219 1:-0.12478617 2:-0.64491606 3:-0.65498263 4:-0.29292247 5:-0.58644986 6:0.28068626 7:-0.24635334 8:-0.3309491 9:-0.13003324 10:-0.19424598 
-16384 0 0:-0.54238868 1:-0.40890521 2:-0.46515444 3:-0.39754751 4:-0.0021548918 5:-0.38891059 6:0.025216293 7:-0.45151076 8:-0.62511021 9:-0.35864374 10:-0.46456081 
-16384 0 0:-0.79819471 1:-0.62330794 2:0.052460987 3:0.15931593 4:0.60973382 5:-0.64638215 6:0.74687839 7:-0.74418503 8:-0.76980633 9:-0.62607521 10:-0.5894444 
-12123.18916367428 0 0:0.38607898 1:0.59424639 2:-0.47427279 3:-0.42491928 4:-0.34149081 5:-0.17788132 6:-0.53052747 7:0.68675077 8:-0.064101078 9:0.96883005 10:0.14503241 
-16384 0 0:-0.46291623 1:-0.11372846 2:1.0112915 3:1.3135237 4:0.48156524 5:-0.62017155 6:0.75958258 7:-0.45029336 8:-0.49598134 9:-0.15160541 10:-0.15308683 
-13796.85316090865 0 0:-0.66529059 1:-0.35373202 2:1.3669499 3:1.7133423 4:1.0584639 5:-0.6519872 6:0.81272405 7:-0.60821474 8:-0.69063252 9:-0.35771662 10:-0.3815794 
-13047.06182411822 0 0:-0.38068065 1:-0.19634216 2:-0.2437827 3:-0.21728696 4:0.06529326 5:-0.6100595 6:0.55969268 7:-0.49608916 8:-0.27093095 9:-0.33693859 10:-0.095735677 
-16384 0 0:-0.67476726 1:-0.48104849 2:-0.36727899 3:-0.32445616 4:0.54353726 5:-0.49722046 6:0.31375062 7:-0.56962895 8:-0.70288652 9:-0.41466841 10:-0.49919367 
-16384 0 0:-0.74790132 1:-0.60279012 2:-0.56761742 3:-0.57155067 4:0.28489411 5:-0.50857311 6:0.22748831 7:-0.69749534 8:-0.73453319 9:-0.60126507 10:-0.58054125 
-16384 0 0:-0.4776203 1:-0.35372385 2:-0.50878567 3:-0.51617646 4:-0.071911149 5:-0.52804238 6:0.26849267 7:-0.52030915 8:-0.4391183 9:-0.41455972 10:-0.31868514 
-16384 0 0:1.7303358 1:2.0379603 2:-0.8672654 3:-0.96003425 4:-0.59902805 5:-0.67514116 6:0.39181817 7:1.1446121 8:1.741321 9:1.6072688 10:1.9920076 
-16384 0 0:0.0025763223 1:-0.17670892 2:-0.12474547 3:-0.40714669 4:-0.48598915 5:-0.53760135 6:-0.21550739 7:-0.18556608 8:0.058144517 9:-0.28080413 10:-0.13557039 
-16384 0 0:-0.71444756 1:-0.60322994 2:0.64749968 3:0.49266446 4:0.18559699 5:-0.64273494 6:0.38268739 7:-0.66948819 8:-0.71109849 9:-0.6006431 10:-0.58516175 
-1391.52353561216 0 0:0.89903879 1:0.80248398 2:-1.0622256 3:-1.1323363 4:-0.58617401 5:-0.2001905 6:-0.78236747 7:0.78628141 8:0.60716492 9:0.8068158 10:0.54360682 
-15507.63893359085 0 0:0.63194692 1:0.68129849 2:-0.99646437 3:-1.0152959 4:-0.52543664 5:0.068386815 6:-1.006191 7:1.4119631 8:-0.083808891 9:1.5962752 10:0.018374575 
-16384 0 0:0.12909004 1:0.30162287 2:-0.78676426 3:-0.82604766 4:-0.38144428 5:-0.3062284 6:-0.40025443 7:0.017408542 8:0.07461486 9:0.20194042 10:0.25721031 
-16384 0 0:-0.12229189 1:-0.058501158 2:-0.70461577 3:-0.72330815 4:-0.35669893 5:0.22121063 6:-0.29828212 7:-0.21226813 8:-0.13051191 9:-0.13186316 10:-0.065458313 
-16384 0 0:-0.50563413 1:-0.34966388 2:-0.61905736 3:-0.6169861 4:-0.041018017 5:-0.087904468 6:-0.097456768 7:-0.54263884 8:-0.46008185 9:-0.4142037 10:-0.3090958 
-16384 0 0:-0.2650367 1:-0.06419605 2:-0.56603032 3:-0.572429 4:-0.16156134 5:-0.53108406 6:0.42567676 7:-0.31938455 8:-0.27382711 9:-0.14373188 10:-0.064290345 
-16384 0 0:-0.36888355 1:-0.20998937 2:-0.39360377 3:-0.3639755 4:-0.10779003 5:-0.52355802 6:0.35963279 7:-0.38285866 8:-0.39726964 9:-0.24485233 10:-0.22961134 
-16384 0 0:-0.0926769 1:0.11450998 2:-0.29452071 3:-0.2646592 4:-0.28528371 5:-0.51027709 6:0.2898176 7:-0.23854934 8:-0.041873876 9:-0.043539729 10:0.16289029 
-16384 0 0:-0.030791065 1:0.33608311 2:-0.36067042 3:-0.3009944 4:-0.1868306 5:-0.3402864 6:-0.03535454 7:0.061775412 8:-0.25408792 9:0.4479107 10:0.086523972 
-16384 0 0:-0.63500279 1:-0.42969522 2:0.78921962 3:1.1192186 4:0.47469437 5:-0.38082391 6:0.35597458 7:-0.52180332 8:-0.70888793 9:-0.35470986 10:-0.492479 
-16384 0 0:-0.73770654 1:-0.53992712 2:0.18681188 3:0.32322964 4:0.57511318 5:-0.40755764 6:0.40846363 7:-0.69399619 8:-0.72006702 9:-0.55099845 10:-0.51673853 
-16384 0 0:-0.81311011 1:-0.61341268 2:1.3026192 3:1.7906415 4:0.89588726 5:-0.44605514 6:0.55042011 7:-0.67787951 8:-0.85333097 9:-0.55080891 10:-0.63273984 
-44.56629324927741 0 0:2.609237 1:2.4637973 2:-1.136771 3:-1.1737611 4:-0.66125077 5:-0.22688669 6:-0.68133116 7:2.1996801 8:2.2408323 9:2.2739491 10:2.1436701 
-4008.879553949578 0 0:3.0606165 1:3.569273 2:-0.97192484 3:-1.0823342 4:-0.60505348 5:0.25665855 6:-1.5423688 7:2.8345339 8:2.315908 9:3.620661 10:2.7627459 
-1515.698898091282 0 0:3.4457235 1:2.8450613 2:-1.2171806 3:-1.2750666 4:-0.67615575 5:0.23054531 6:-1.893856 7:4.5865717 8:1.7267931 9:4.2256913 10:1.4226741 
-16384 0 0:-0.59198719 1:-0.29345086 2:0.21777892 3:0.51721245 4:0.61323315 5:0.29220384 6:-0.96008229 7:-0.55702502 8:-0.61672395 9:-0.31589812 10:-0.31696957 
-16188.6824738431 0 0:-0.63068932 1:-0.5592401 2:-0.35949478 3:-0.83487415 4:-0.016004035 5:-0.89599836 6:2.1969235 7:-0.66843051 8:-0.53791237 9:-0.60481519 10:-0.48969677 
-16384 0 0:-0.58643335 1:-0.53859609 2:-0.90595996 3:-1.1471637 4:-0.15307407 5:-0.85176116 6:1.5812602 7:-0.59868026 8:-0.5544101 9:-0.56387287 10:-0.50393319 
-11751.26586784902 0 0:0.80007869 1:0.36485368 2:-0.93353409 3:-1.0833737 4:-0.61830533 5:-0.81201571 6:1.3187015 7:0.32984221 8:0.96166593 9:0.10996165 10:0.46342191 
-2711.419341999944 0 0:-0.23116033 1:-0.31719509 2:-0.3116799 3:-0.54657823 4:-0.43108279 5:-0.42960528 6:1.6415193 7:-0.35836193 8:-0.10183707 9:-0.40391755 10:-0.22368421 
-6365.721589631952 0 0:1.8492694 1:0.98145044 2:-0.67644358 3:-0.97595495 4:-0.636603 5:-0.55326629 6:-0.26955664 7:1.1374921 8:1.9646878 9:0.64291734 10:1.0354916 
-16384 0 0:-0.30085409 1:-0.35108635 2:-0.17160556 3:-0.019409716 4:-0.36479437 5:0.067467541 6:0.390145 7:-0.4458378 8:-0.16922897 9:-0.45019129 10:-0.26008067 
-16384 0 0:-0.57246959 1:-0.51055956 2:0.28090182 3:0.54503465 4:-0.11061316 5:0.044321466 6:0.58748275 7:-0.60410577 8:-0.51936221 9:-0.55194527 10:-0.46390304 
-11551.4797680798 0 0:-0.73587847 1:-0.61327177 2:-0.53537464 3:-0.44169229 4:0.3517265 5:0.048910223 6:0.16371289 7:-0.72913116 8:-0.67261451 9:-0.6387046 10:-0.55892706 
-16384 0 0:0.010958567 1:-0.18198499 2:-0.36745074 3:-0.33715287 4:-0.49378684 5:-0.1202286 6:0.3175506 7:-0.25567633 8:0.20961447 9:-0.33638254 10:-0.055918757 
-8711.544248802804 0 0:0.3530148 1:0.056892388 2:-0.05976947 3:-0.52552968 4:-0.56531852 5:-1.2656361 6:2.0152104 7:-0.040939398 8:0.61057508 9:-0.17286322 10:0.22748406 
-16384 0 0:-0.74319506 1:-0.62556899 2:0.63619602 3:0.60977411 4:0.057685804 5:-0.83318126 6:1.8275424 7:-0.59780496 8:-0.73975211 9:-0.56228691 10:-0.60451978 
-16384 1.294484104557365 0:-0.72996825 1:-0.62043196 2:1.2776154 3:1.3289938 4:0.105784 5:-0.91369623 6:1.9922688 7:-0.65510201 8:-0.748074 9:-0.59975296 10:-0.61256742 
-10435.51006893831 0 0:-0.68832046 1:-0.59211397 2:0.78135043 3:0.62598932 4:0.061476082 5:-1.052701 6:2.0147562 7:-0.69042492 8:-0.62452543 9:-0.61819941 10:-0.53902841 
-528.496171855349 0 0:1.6866152 1:0.8707608 2:-0.91725039 3:-1.133859 4:-0.67021239 5:-0.91174567 6:0.54109049 7:1.2591432 8:1.4629277 9:0.71728319 10:0.7231003 
-16384 0 0:-0.73145217 1:-0.6111123 2:-0.20946608 3:-0.10341858 4:0.26152557 5:-0.41914198 6:0.57353121 7:-0.72059941 8:-0.67583013 9:-0.63317549 10:-0.56180346 
-16384 0 0:-0.69586277 1:-0.59158587 2:-0.11563845 3:0.0135525 4:0.11399816 5:-0.44695947 6:0.53181738 7:-0.63669682 8:-0.71387964 9:-0.57858419 10:-0.5864169 
-5695.839929620195 0 0:-0.9270311 1:-0.7292695 2:1.4567751 3:1.9773067 4:2.0386205 5:-0.53752661 6:1.1775957 7:-0.82406068 8:-0.92217088 9:-0.70278829 10:-0.70762455 
-3193.630436244364 0 0:-0.85724664 1:-0.69066858 2:1.0001199 3:1.4411316 4:0.97512257 5:-0.48044947 6:1.0243251 7:-0.78129309 8:-0.84467745 9:-0.67702609 10:-0.66510504 
-16384 0 0:-0.88696015 1:-0.70513862 2:0.72539842 3:1.0709888 4:1.1322387 5:-0.50405151 6:1.0163287 7:-0.81886882 8:-0.85114592 9:-0.69951051 10:-0.66533422 
-16384 0 0:-0.91656083 1:-0.7224561 2:0.023320673 3:0.22273879 4:1.644302 5:-0.38287944 6:0.62420529 7:-0.83911043 8:-0.88710541 9:-0.7125392 10:-0.68631536 
-16384 0 0:-0.89639032 1:-0.71294188 2:-0.069518171 3:0.092783429 4:1.2803282 5:-0.37585396 6:0.57100731 7:-0.82388335 8:-0.86537462 9:-0.70480925 10:-0.67567647 
-16384 0 0:-0.49592507 1:-0.47855198 2:-0.47509748 3:-0.46228525 4:-0.19407757 5:-0.48458987 6:0.5117408 7:-0.57740819 8:-0.38964081 9:-0.54316425 10:-0.40446472 
-13431.01077284767 0 0:1.4988862 1:1.1385365 2:-1.0529655 3:-1.1160622 4:-0.66454202 5:0.60578072 6:-0.92009866 7:1.2057279 8:1.2712024 9:1.0534613 10:0.92867726 
-16384 0 0:-0.52689898 1:-0.41583604 2:-0.50893474 3:-0.48881683 4:-0.091406554 5:0.10384997 6:-0.74802703 7:-0.55906379 8:-0.47458604 9:-0.46767011 10:-0.3678425 
-16384 0 0:-0.81355828 1:-0.58367026 2:0.37892637 3:0.62411833 4:1.3194376 5:-0.29447198 6:0.15361784 7:-0.7095772 8:-0.83258283 9:-0.54398268 10:-0.59248435 
-16384 0 0:-0.24640545 1:-0.064293087 2:-0.80989617 3:-0.81731117 4:-0.14598608 5:0.39856312 6:-1.0749854 7:-0.26777393 8:-0.30351827 9:-0.10433518 10:-0.1132148 
-16384 0 0:-0.5335716 1:-0.34606621 2:-0.54591024 3:-0.51787597 4:0.13573906 5:0.15064323 6:-0.81676495 7:-0.556575 8:-0.49332458 9:-0.40972766 10:-0.30162379 
-16384 0 0:-0.092503153 1:0.11882576 2:-0.68208593 3:-0.68773872 4:-0.20350286 5:0.3117927 6:-1.0656275 7:-0.20662889 8:-0.085657261 9:-0.0080040982 10:0.13216662 
-21.57551885874332 -2.65383540323202 0:0.37797889 1:0.068026729 2:2.4521546 3:3.4863584 4:-0.56730437 5:0.92034429 6:0.3044498 7:-0.10640061 8:0.85481524 9:-0.21836936 10:0.36148229 
-1.566034255092896 -1.210247331270422 0:3.6153162 1:10.003557 2:2.2596343 3:0.028913617 4:-0.69301987 5:-1.3079078 6:2.5997372 7:1.4607948 8:5.6851449 9:6.5288825 10:12.037578 
-0.3519954061336835 -0 0:0.1741273 1:-0.065334998 2:8.4675694 3:5.2977471 4:-0.5206188 5:-1.1677595 6:2.9923701 7:-0.33773568 8:0.85414809 9:-0.37934202 10:0.34743789 
-2.246674550875277 -1.890356027965288 0:4.2226992 1:4.4821043 2:2.1568074 3:0.011466701 4:-0.69879776 5:-1.3152246 6:2.1548407 7:1.9281591 8:6.0616808 9:2.5899317 10:5.8431206 
-39.81843038826042 -5.079380960887928 0:0.44866642 1:0.10823283 2:2.5257697 3:2.548667 4:-0.57708561 5:-0.79293525 6:1.7379901 7:-0.22984968 8:1.3563359 9:-0.30377623 10:0.6617865 
